#ifndef NN_WEIGHTS_H
#define NN_WEIGHTS_H

#include <stdint.h>

#define NN_FRAC_BITS 11
#define NN_NUM_LAYERS 4

// Layer sizes
static const int NN_LAYER_SIZES[4] = {784, 16, 16, 10};

// Layer 0 weights: 784 x 16
static const int16_t WEIGHTS_L0[16][784] = {
    {-41, 162, 85, 35, -119, -122, -155, 131, 35, 77, -169, 170, 119, -101, -112, -109, -66, 10, -22, -72, 41, -122, -71, -46, -12, 103, -103, 8, 34, -158, 43, -113, -153, 163, 168, 110, -66, -140, 66, -20, -132, 2, -162, 146, -82, 60, -65, 9, 20, -111, 169, 97, 158, 144, 35, 154, -144, -107, -159, -59, -36, -77, 118, -49, -76, 17, -128, 111, -150, 175, 99, -106, -175, 114, 75, 83, 100, -150, -50, -133, 132, 48, -60, -150, -63, -61, 83, 50, 140, -5, -133, 78, 95, 25, 98, 1, 9, -23, -166, -137, -163, 50, -64, 4, 147, -86, -31, 93, -94, -148, -73, -119, 152, 111, 50, 132, 109, -108, 141, 16, 111, 144, -63, -134, -96, -23, 115, 131, -174, 4, -28, -98, -129, -55, 159, -61, 9, 71, -48, 171, 165, -85, 3, -69, -73, -165, 40, 3, -220, -137, 84, -152, -56, 63, 242, -23, -2, 30, -156, 17, -44, 49, 51, 13, -143, 119, -62, -109, -162, 33, 63, -170, 8, -94, 54, -113, 7, -100, 94, -190, 15, -67, 220, 203, -147, -6, 49, -42, 12, -89, -141, 141, 144, 49, -55, -51, 79, 142, 140, 101, 54, -145, -119, 143, -23, -233, -201, -2, -105, -49, 87, 137, -9, -162, 11, -158, -60, 90, 54, 128, 58, 30, -140, -46, -84, -88, 172, -36, 140, 48, 105, 4, -35, -64, -167, 18, -9, -100, 120, -44, 94, 96, 84, -109, -171, 154, -23, 167, 166, 128, -68, -39, 127, -62, -115, 19, 159, 72, 26, -139, -65, 68, -233, -100, 245, 200, 180, 183, -48, -71, 109, 111, 131, 150, 5, 3, 107, 56, 74, 105, 141, -56, -44, -141, 30, -164, -9, 16, -181, -73, -271, -269, 226, 64, -20, 120, 93, -102, 46, -148, -154, 14, 16, 51, 83, 171, 7, -61, 104, -81, -20, -148, -167, 166, 120, 73, -140, -221, -226, -193, 128, 189, 167, 32, 161, 84, 20, 39, -28, -88, -50, 93, -169, -134, -157, -161, 129, 75, -9, -142, -1, -7, -112, -22, -36, 49, 52, -156, 80, 167, 124, 250, -5, -182, -212, -10, -168, 32, 158, 30, -39, 54, -15, 17, 159, -39, 168, 147, -105, -153, -141, -169, -137, 71, -144, -60, 244, -46, 236, 46, -198, 11, -13, 74, 82, 109, -80, -114, 90, 110, 176, -27, -42, 99, -57, 154, 131, -24, 90, 95, -134, 151, 7, 123, 60, 263, 85, -51, 83, -204, -123, 97, 160, 30, 51, -17, -70, -58, 64, 92, 108, 105, -144, -1, -155, 19, -20, 141, -46, -130, -121, 100, 162, -19, -24, 192, -212, 53, 15, -213, -146, 176, -39, -44, 115, 160, 173, 93, -44, -147, 101, 24, -22, 147, -137, 0, -17, 144, -1, 22, -23, 164, 199, 141, -39, -247, -279, -67, -94, 166, -170, 167, -160, 141, 11, 176, -147, 21, 169, 11, 49, 70, -14, 46, 183, 300, -2, 81, 272, 251, 94, 155, -279, -311, -216, -255, 33, -147, 170, 174, 72, 14, -64, 113, 67, -117, 147, 118, 162, 80, 40, -29, 308, 288, -3, -9, 66, 224, 284, -13, -167, -243, -36, -81, 122, -8, -30, -80, -154, 130, 111, 180, 179, 22, 97, 159, 126, -89, -16, -129, 222, 99, -30, 123, 215, 121, 37, 234, -54, 34, -53, 63, 21, 24, 137, -34, -130, -165, 94, 43, 73, -97, -127, -168, -50, 37, -36, -20, 207, 12, 68, 163, 137, 216, 299, 333, -189, 89, -66, -147, -11, 172, -1, -59, 51, -90, -147, -130, -128, -123, -127, 49, -112, -52, 142, -8, 123, -54, -44, -99, 56, 94, 59, 27, -197, -75, -163, -108, 4, 70, -158, 106, 48, -148, 135, 150, -154, -78, 109, 88, -112, -101, -43, -4, 106, 17, 48, 151, 11, 84, 248, 312, -54, -48, -201, -80, 13, -89, -81, -40, -167, -61, -99, -59, -132, 141, 34, 66, 105, 1, -143, 16, 33, 87, -20, -128, -74, -47, 53, 28, -48, 175, 38, -90, -139, -121, -90, -121, -109, -74, -110, 140, -145, 10, -30, 174, -135, -34, 168, 132, 115, -82, -116, 62, 154, 21, 26, -79, 99, -108, -62, -24, 2, -89, -135, 42, -73, 29, -121, -5, 15, -156, -56, -128, -150, 175, -59, 113, -86, 66, 96, 35, -8, -31, -51, 154, 118, 165, -130, 83, 160, -112, -150, 86, 30, 123, -125, 107, -102, -115, -117, 113, 63, 12, -48, 137, -35, 114, -20, -43, -13, -67, 93, 5, -93, 143, -38, 16, 144, 46, -134, 157, 47, -59, -127, 108, 45, 14, 143, 105, -120, -62, -86, 88, -164, 26, 97, 137, -53, 115, -135, 126, -130, -36, 106, -120, -94, 83, 80, 55, 73, 18, -84, -52},
    {-117, 138, 22, -38, -12, 156, -126, 24, 0, 40, -171, 129, 149, 21, 67, 149, 73, -126, 23, 36, -27, 79, 153, 148, -24, -138, 166, 118, -138, 144, 131, 7, 28, -41, -157, -60, 104, -179, -66, -36, 8, 148, -59, -56, 86, -19, -101, -15, -128, -124, -7, -35, 145, -49, 28, 42, -172, 56, -117, 162, -123, -34, -148, 172, 1, 35, -159, 86, -106, 139, -108, -111, -171, -13, 20, -156, 97, -17, 3, -26, -34, 18, -126, -114, 123, 154, -49, -83, 48, -33, -171, -126, 71, 52, -169, -98, -99, 60, -175, -142, 107, -118, 55, -95, -144, -93, 75, 125, 116, -42, 57, -107, -82, 138, -183, -147, -110, -167, -116, 26, -35, 139, 111, -55, -92, -48, 33, -82, 43, -35, 16, -27, -72, 156, 94, -130, 125, -7, 138, 105, -31, -174, -84, 13, 45, -90, -129, 115, 202, 45, -87, -48, -167, 142, -142, 24, 71, 171, 204, 267, -110, -178, -137, 136, 129, 32, 36, 53, -122, 143, -34, -43, 6, -170, -121, 84, -112, 65, -57, -15, -77, -51, 72, -73, 175, 144, 207, 304, 80, -99, -170, -85, 31, -164, -6, 32, -61, 92, -143, -155, 76, -5, 61, -28, -56, 149, 140, 103, -79, 29, -49, -148, 298, 23, 303, 125, -119, 13, 127, 82, 106, 54, 67, 119, -94, -5, -101, 168, 155, -164, 67, 150, -79, 55, 178, -130, 61, -75, 144, 165, 308, 137, 279, 274, -69, 112, -167, 26, -96, -137, -153, 67, -61, 72, -151, -69, 15, 107, -72, 44, -41, -136, -272, -344, 18, -284, 19, -101, 626, 573, 639, 416, 94, -32, -7, 41, 130, 170, 86, -32, -29, 84, -101, -139, -55, -80, -71, -94, -340, -349, -5, -201, -153, -48, -215, 46, 565, 320, 436, 599, 157, -14, 35, -119, 173, -94, 150, 45, 36, 2, -100, -112, -101, -116, 94, -51, -330, -15, -38, -24, 63, -230, -151, -23, 541, 346, 578, 364, -101, 8, 30, 22, -145, 131, -81, -132, 133, 155, 130, 106, 53, 16, -146, -36, 18, -14, 148, 64, -262, -218, -49, -267, 157, 29, 25, 67, 115, -63, 63, 22, -87, 135, 101, 52, 121, 124, 76, 112, 67, 59, 38, 87, -48, 203, 200, -97, 0, -248, -173, -30, -86, 147, 152, 37, -177, -79, 39, 171, 46, -91, 44, 11, 96, -143, 88, 11, 159, -58, 44, 155, -70, 223, 134, -83, -190, -42, -267, -83, -27, 77, -126, 163, 164, 166, 89, -134, 91, -167, -172, -69, -7, 92, 59, -26, -83, 167, -20, -24, -51, 173, 143, -30, -262, -49, -64, -205, 195, -95, 8, 186, -30, 43, -38, -80, 169, -32, 132, -100, -105, -171, 51, -46, 131, -8, 164, -112, 263, 225, 225, 252, -20, -70, -248, -282, 3, -106, -45, -155, -138, -141, 68, -27, -111, -1, -161, 24, -82, 104, -75, -18, -179, -161, -35, -14, 160, 53, 197, 260, -15, -273, -127, -252, -240, 26, -271, -149, 37, 70, 21, -177, -64, 0, -150, -60, -168, -150, -43, -133, 20, 61, 102, -114, 11, -12, 182, 205, -283, 45, -271, -98, -73, -15, -69, -43, -62, 113, -154, 135, 10, 111, -23, 43, 9, 78, -155, -162, -93, -121, 132, -100, 43, -185, -235, -24, -176, -236, -211, -161, -65, 207, 195, 87, -108, 64, -155, -173, -92, -15, 133, 74, 83, -28, -59, -46, 165, -164, 130, 23, -145, -40, -129, 8, -90, -259, -311, -204, 178, -74, 74, 79, 79, -136, 70, 142, -114, -97, 167, -120, 125, -4, -95, 127, -25, 1, -52, 30, -242, -166, 45, -207, -178, -295, -135, -365, 197, 17, -61, -118, -117, 6, -59, 114, -23, -88, 40, 70, -116, -117, -171, 80, 56, -13, 121, 99, -94, 8, -226, -259, -316, -390, -227, -83, -130, -103, 15, 185, -70, 0, -167, -128, 170, 160, -179, 162, 46, 129, -19, 3, -4, 56, -131, -169, -76, 69, -101, 62, 163, -148, 61, -20, 132, -119, 61, 118, 153, 61, -6, 39, 127, 25, -166, 150, 65, 59, -102, 54, -43, 51, -142, 51, 177, -162, 166, -36, 125, 93, 24, 81, 132, -36, -62, 57, 103, 92, 101, -28, 109, -139, 12, -176, -59, -50, -36, 70, -37, -24, -98, -47, -95, -155, 35, 58, 37, -20, -45, 126, 4, -15, -171, -58, -46, -40, 25, 8, 33, 88, 105, 75, 158, -174, -115, -181, 52, 138, -97, 145, -156, 155, -59, -142, -9, -88, -78, -69, 103, 11, -72, 37, 73, -87, -35, -134, -115, 60, -120, 9, 70, -148, 19, -86, 158, -2, 102, 11, -170, 43, 159, 33, 110, 133, -97, -107, 37, -35, 112, 142, -53, -93, 91, -81, 114, -31, 56, -143},
    {43, -19, 34, -114, 85, 131, -100, -140, -166, 50, 39, 15, -93, -36, 36, 0, 171, -125, 73, -33, -23, 74, 64, 176, -130, -141, 78, 28, -79, -150, -149, 139, -106, -65, -97, -48, -152, 9, -151, 108, -92, 13, 135, 55, 11, -64, -58, 61, 173, 61, 23, 85, -10, -156, 24, 161, -114, 70, -105, 13, -144, -18, 91, -53, 59, 106, 154, -95, -34, -124, 174, 154, 17, 120, 8, 45, -148, 93, -129, 116, 97, 71, -162, -71, -85, -47, -144, 158, 18, -73, -37, -16, 36, 4, 149, -4, 177, 126, -103, 154, -138, 112, -41, 138, 130, 107, 105, -68, -147, -38, -115, 70, -51, 171, 49, 118, -130, 126, 151, -5, 40, 92, -113, -1, -34, -128, -46, -154, -165, -126, 165, 21, 160, -25, -65, 3, -20, -136, 52, -101, 45, 52, -125, -153, 100, -12, -157, 172, -50, 173, 277, 13, -304, -309, -244, -315, 53, -170, -12, 162, 114, 42, -72, 48, 11, -23, -131, 139, -16, -106, -45, -30, 116, 83, 95, -175, 76, 98, -64, 19, -87, -307, -162, -279, -191, -108, 153, 90, 162, -7, -141, 20, -17, 123, -140, -5, -119, -59, 85, -6, -45, -33, -12, 103, 245, 265, 206, 37, -111, -200, -265, -54, -178, 127, -28, 37, 57, 139, 51, 40, -153, 1, -126, 87, 10, 63, -161, -146, 79, -150, -151, -173, 269, 191, 51, 34, -228, -77, -117, -288, -131, -153, 43, 79, -81, -169, -148, 169, -72, 95, 42, -39, -104, -134, 40, 100, 49, 13, -159, 165, 454, 277, 520, 385, -56, 2, 29, -27, -227, -154, 60, -192, -44, -25, -19, 40, 160, -93, -135, -104, 137, 53, -71, 111, 128, 125, 149, -86, 439, 333, 468, 429, 14, -30, -202, -69, 82, 64, -259, -210, -133, 79, 115, -101, 3, 119, 84, 18, 36, 5, -70, 23, 72, 132, 52, 87, 232, 336, 172, 258, -3, 87, -224, -118, 14, -197, -74, -10, 46, -111, -49, 103, 18, -174, 90, -167, 89, -105, 166, -45, -58, -124, -71, 137, 255, 24, 57, 154, 101, 2, -69, -62, 174, -69, 148, 53, 106, -142, 34, -9, 53, -157, 31, 26, 22, 38, 61, 106, -84, 120, -1, -150, -83, 16, 173, 149, 70, -26, -55, -163, 46, 80, -40, 4, 39, 85, 183, 156, 50, -24, 48, 101, -137, -29, 123, -40, 24, 34, -111, -52, 12, -98, -94, 189, -115, -28, -107, 123, 21, 78, 237, 230, -108, 105, -17, -6, -130, -148, 81, 1, -26, 82, 96, -118, 38, -127, 88, 54, 233, -77, -84, -5, -115, -123, 111, -120, 25, 198, 83, 210, -151, -5, -169, -156, 141, -125, 15, -32, -51, 142, -169, 57, 160, 21, 154, -158, -175, -230, -63, 25, -170, -29, -191, -61, 331, 511, 384, 286, -139, -123, -98, -84, 124, 20, 10, -133, 125, 80, -152, 72, 15, -144, -16, -4, -261, 12, -24, -90, -100, -116, -28, -68, 186, 349, 455, 330, -160, 99, -106, -85, -115, -57, 90, 7, -104, 134, 136, 130, -93, -12, 174, 99, -309, -302, -161, -5, -67, -89, -225, -29, 457, 300, 444, 510, -105, 6, -74, 110, 27, 47, 112, -35, 146, 12, -122, 71, 105, -66, 127, 145, -182, 70, -236, -208, -302, -46, -137, -311, 86, 150, -42, 242, 105, 2, 165, -23, 173, 59, 46, -115, 137, -29, -118, -176, 23, 8, 79, 140, -252, -25, -213, 23, -78, -175, -113, -255, 99, 221, 95, 57, -2, 118, -56, -116, 74, 116, -144, -90, -128, -50, -16, 93, 56, 43, -51, 120, -115, 66, -58, -235, -128, -251, -125, -341, -9, 232, 7, 224, -78, 52, 65, 9, -70, -101, -166, -67, 53, 156, 134, 98, 105, 60, -86, 146, -45, -84, -238, -123, -205, -58, -172, -229, 272, -31, 80, -55, 89, 150, -75, 125, -75, 147, 90, 109, -172, 164, 83, -69, 116, -76, 131, -137, 75, 17, -145, -94, -172, -9, -69, 31, -72, -71, 90, -162, 145, 124, 63, 39, 140, -109, -154, -89, 103, -160, 30, 174, 127, 8, -152, 119, 35, -137, -141, 145, 64, 119, 136, 30, 4, -23, -63, -22, 102, 37, 143, -22, 38, 48, 32, 71, -93, 2, -140, -42, -9, 57, 160, 32, 89, 2, 44, -152, -86, -45, -10, -160, -124, -74, 167, -59, -7, -106, 39, -73, -103, 8, -176, -176, -100, -165, -137, -55, 104, 24, 6, -73, 151, -36, -144, 45, -133, -56, 1, 130, -1, 74, 175, -128, -76, -37, -27, -29, 147, 78, 40, -67, 117, 164, 114, -178, 48, -162, -86, -154, 40, 70, -137, -42, -14, -45, -135, -28, 90, -149, -148, -52, 157, 56, 64, -52, 32, -176, 48, 145},
    {43, 136, 86, -133, 142, -152, 17, -124, -169, -23, -68, -2, 31, -158, -131, 22, -54, 85, 56, 120, 70, -25, 64, -72, -66, 103, -14, 110, 120, 128, 151, -24, -64, 33, -46, 39, 76, 71, -39, -116, -24, -123, 142, -49, -117, -165, 52, 49, -59, -148, -27, -62, 69, 39, -44, -98, 177, -14, 68, -125, -5, -165, 4, 170, -38, -161, -164, -38, -116, -166, 93, -13, -74, 143, -133, 167, -63, 140, 40, 120, 174, -70, 168, -37, -37, -52, 17, -119, 21, 19, 92, 121, -18, -68, -82, -107, -154, -51, -80, 172, 18, -50, 31, -122, -15, 49, -3, -29, 181, 138, 47, 28, 47, -103, -30, -159, -7, 17, -94, 168, 150, 83, 15, 133, -128, 103, -134, 106, -75, 136, 158, -123, -17, 174, 1, 132, 37, -42, -73, -102, 95, -38, 3, 1, 30, 133, 172, -33, 90, 64, -5, 133, -188, -219, 44, -104, 108, 124, -173, 118, -15, 6, 48, 156, -167, -8, 68, 79, 70, -127, -71, -47, 114, -74, -99, 164, -206, 147, 33, 87, -155, -256, 3, 38, 69, -143, 72, 78, 59, 99, 121, 44, -143, 0, -147, -30, -28, -148, -50, -134, 109, 164, -148, 161, -25, -104, -179, -31, 25, -9, -243, -233, -47, -93, -111, -93, 108, 155, -28, 146, -60, -10, -93, 54, 173, 39, -47, 56, -131, 141, 4, -16, 1, 15, -183, 33, -171, -6, 35, 28, 2, -9, -145, 83, -74, 0, -73, -126, 46, -155, 90, -60, -174, 4, -157, -76, 78, -153, 125, -177, 21, 188, 44, -35, 52, 19, 225, 36, 81, 112, -46, 122, -43, 169, -146, 67, -2, -36, 50, 75, -176, -113, 82, 63, 168, 98, 162, 78, 36, -38, 205, 157, -59, 52, 266, 100, -44, -40, -125, -70, -45, -155, 95, -29, 115, 124, -98, 58, -9, 138, -97, 65, 38, -70, -124, 54, 189, 42, 159, 65, 177, -7, 240, 29, -69, -176, -164, -19, -79, 126, -171, -39, -52, -170, -132, -29, 1, -29, 13, 36, -169, -11, 165, 9, 100, -34, 135, 132, 289, 451, 151, 115, 65, 76, -164, -113, -171, -70, 96, 13, -50, -46, -172, -68, 54, 172, 129, -166, 140, 103, 105, -15, -2, -33, -122, -61, 193, 276, 369, 273, -188, 130, 127, 70, 179, 18, 171, -149, -47, -92, -107, -124, 45, 103, 28, -123, 111, 51, -36, 63, -49, -20, 183, -39, 273, 422, 359, 129, -154, -204, 15, -47, -127, 163, 11, -90, 1, 66, -147, -75, 110, -11, 20, -21, -160, -118, -18, -99, -125, 157, 205, 143, 410, 190, 447, 181, 128, 145, 40, 145, 27, -86, -19, 35, -152, 47, 172, -107, 107, 148, 159, 168, 8, 169, 94, -116, -262, -175, -342, -203, 163, -14, 125, 200, 120, -51, -50, 67, 155, -94, 48, -98, -59, 124, 81, -139, -25, -164, -3, 57, -133, -70, -35, 151, -76, -415, -163, -300, 64, 193, 251, 261, 146, 68, 224, 34, 26, -50, 56, -91, -105, 151, -139, 5, -94, -159, -158, -111, 129, -74, 165, 32, -275, -226, -250, -163, 23, 49, 244, 258, 257, 94, 222, 111, -1, -104, 36, -109, -56, 130, -98, -151, -149, 158, 4, -30, 113, 120, -58, 70, -72, -113, -288, -38, -56, -144, -92, -230, -161, 66, -208, -61, 13, -154, 168, -91, -68, -70, -91, -173, 85, 170, -97, 61, 91, 127, -28, -66, -232, -94, -53, -281, -110, 79, 39, 105, 63, -67, 2, 27, -145, 20, 75, -115, 102, 31, 161, -161, -80, 37, -66, 78, 96, -135, 5, 5, -215, -14, -52, -95, 7, -79, 81, 3, 49, 98, -109, 79, -102, -51, -57, 177, 126, 72, 80, 30, 158, 2, -40, -116, 105, 87, -37, -165, -42, -338, -95, 1, -89, -164, 7, 46, -16, 133, -192, -27, 83, 131, -111, 110, 18, -32, -128, 132, -119, -65, -74, 136, 65, 108, -86, 47, 31, 122, 144, -170, 66, -158, 20, -74, -65, -50, 48, -56, 84, -30, -148, 103, -69, -17, 67, -58, -155, -39, 162, 53, 63, 50, -104, -26, 96, -140, -75, -74, -18, 176, -150, 10, -114, 173, -138, -30, 88, 77, -24, -54, -37, -78, -105, -8, -83, -75, 55, 168, 38, -145, -145, 161, -64, -144, 37, 47, 58, -77, -170, 169, -87, 68, 75, 45, -61, -79, 36, 134, 161, -137, -119, 160, 83, 138, -98, 35, 72, 64, -27, -170, 36, -83, -18, 167, -33, 123, -104, 63, 172, -137, -171, -18, -139, 93, 148, -23, -85, -23, 80, -173, 37, 42, 52, -87, 80, -147, -101, 138, 89, -165, -85, -102, -80, -86, -151, -14, 88, 39, 63, -145, 159, 123, 113, 115, 155, 18, -105, 44},
    {83, 81, 2, -151, -44, 151, 27, 13, -82, -49, 138, 57, 100, -19, 41, -95, 72, -28, -23, 55, 156, -160, 111, -78, -21, -170, -74, -2, -163, -5, 145, -142, 94, -37, 56, -87, -120, -122, -156, -112, 58, 132, 108, 64, -142, -77, -69, -89, 5, 10, -53, -52, 115, 101, -71, 146, 159, -63, -52, -3, 155, 130, -143, -41, 18, -3, -110, 126, 62, 116, 124, 87, -20, 38, -120, 59, -116, 72, -98, -140, -121, -180, 77, 77, 4, -121, -148, -172, -122, 130, -92, -57, -144, -101, 3, 35, -92, -161, -38, -97, -96, 160, 39, 16, -37, -30, 13, 65, 68, -118, -4, -33, 129, 45, 7, -138, 39, -137, -57, -128, 66, -106, -38, 140, -107, 5, -27, -173, 102, -155, -10, 23, 45, 69, -94, -175, 75, 13, 120, 113, 121, -7, -59, 102, -20, -114, 127, 134, -5, -142, -30, 117, 243, 0, -48, 238, 50, 101, 254, -67, 52, -152, -46, 109, -23, 179, 20, -61, -104, -54, -45, -155, -48, -14, 79, 54, 84, -162, -89, 69, 96, -73, 211, 199, 104, -71, 182, 116, 98, 85, 104, 3, -133, 58, 39, 84, -116, -109, 135, 88, 143, 89, 33, 56, 152, 41, 61, -109, 94, 181, 22, 1, 19, -2, -13, 63, 145, 1, -113, -155, 70, -43, 108, 57, 104, -82, 66, -87, 156, 48, -64, -84, -100, 80, -91, 46, 21, 160, 216, 201, 178, -22, -55, 154, -49, -25, -169, -88, -165, 132, -96, 18, -166, 55, -66, 140, 134, -64, 142, 178, 225, 235, 21, 142, -198, -192, 131, -107, 163, 186, 208, 257, -93, -164, -32, -131, -168, -55, 97, 25, -64, 52, -96, -176, 95, 41, 91, -160, 232, 157, 135, 155, 81, -15, -21, 128, 171, 63, 150, 41, -96, 30, 151, 151, -59, 12, -102, 177, 174, 53, 104, 76, 33, -162, -14, 59, 181, 65, 268, -4, -44, 21, 25, 8, -3, -44, 130, 116, -114, 70, -15, 56, 116, -121, -174, 99, 36, 67, 120, 110, 158, 9, -5, -36, -250, -106, -211, 19, -362, -352, -441, -548, -155, -14, -137, 45, 135, 135, 54, -109, 126, 136, -108, 85, -77, 104, 170, -171, 141, 46, 164, -12, -6, -283, -189, -284, -217, -277, -263, -234, -132, -30, -141, -95, -95, -12, -82, -144, -120, -127, 168, 88, 165, -22, -78, 104, -64, -70, -97, -136, -217, -185, -63, -285, -495, -279, -516, -447, 136, -115, -138, 9, -70, 20, 107, -126, 29, -1, -126, 42, -83, -5, -148, -17, -69, 117, -160, -33, -145, -52, -104, -72, -291, -262, -457, -376, 133, 182, 149, -33, -113, -5, 82, -6, -7, 118, -49, 124, -33, -59, -15, 92, -133, -107, 160, -119, 81, 91, 55, 109, -146, -31, -93, 11, 12, 165, 27, 60, -103, -116, 114, -74, 150, 165, 29, -129, -46, 103, -49, -147, 18, 120, 102, -116, 122, -42, -43, 190, -134, -131, -221, 86, 241, 185, 228, 11, -17, -50, -144, -7, 147, -166, -75, -104, -95, 142, -13, -16, 95, -125, -9, -26, 92, 230, 156, 19, 72, -166, -212, -151, 81, 141, 179, 289, 5, -1, -160, -164, 17, -23, 122, -118, -170, -18, -95, -160, 78, -138, 36, -79, -161, -89, 51, -84, -6, -226, 3, -188, 73, 34, 166, -29, -157, -174, 115, 8, 97, -96, -60, -166, 161, 54, 156, -88, 35, 59, -64, 121, 113, 85, 35, -128, -174, 69, -267, -20, 84, 52, 187, -55, -60, -153, -19, -88, -57, 118, 153, -111, -47, 156, -160, -144, -121, 28, -127, 164, -67, -48, -140, -61, -36, -4, -5, -68, 158, 121, 101, -150, -180, -105, 53, -32, -34, 137, 141, 142, -62, 62, -81, -109, -113, -57, -25, 117, -190, 34, -37, -128, -98, -167, -61, -119, -110, -125, 29, 152, -56, 80, 56, 150, 117, 22, 55, 139, -36, -65, -172, 114, 105, -138, 26, -14, -138, 172, -104, -154, 30, 85, -165, 57, 10, -141, -118, 22, -73, 152, 111, 173, -88, 165, -29, -52, -162, -160, 65, -15, -99, 38, -90, 30, -55, 110, 112, -11, -56, -50, 107, -61, -105, -149, -14, -10, 123, -103, -44, 108, 116, -41, -14, -68, 154, -134, 153, 63, 5, -166, -10, -37, -121, 58, 166, 21, 74, -153, -29, -139, 39, 156, 57, -152, -56, 15, -37, 119, 108, 41, -46, -89, -141, -55, -36, 60, 56, -156, -39, -114, -129, 112, -160, -30, -115, 132, 14, -97, 0, 78, 161, -99, 135, 154, 148, 50, 47, -34, 90, 10, 60, -27, 80, 115, -126, 117, 11, 121, -26, -45, 141, -88, 121, -7, 2, -68, 23, -63, -161, -82, -176, 166, 164, -38, 77, -58, 58, 105},
    {160, -35, 103, -80, 173, -165, 38, 62, 68, -136, 155, -113, 46, -97, -68, 14, -31, -120, -114, -27, 92, 138, -150, -37, -138, -172, 59, 36, -118, -92, -172, 117, 171, -128, -95, 132, 153, -28, -155, -164, 30, -41, -166, 29, -177, 101, -67, -164, 32, -31, 171, 21, -79, 72, -82, 145, -46, 18, -158, -28, 115, 109, -98, -98, 112, 151, -141, -18, -55, 131, -148, -102, 95, -158, -1, -21, -61, -36, 13, -120, 23, 108, 94, -125, -122, -80, -47, -32, 62, -162, -164, -39, 72, -108, 49, -89, 139, 139, -69, -96, -31, -91, 60, 116, 59, 114, -34, -123, 84, -49, 60, -80, -144, 175, -118, 173, 174, 103, 59, 28, 132, -75, -9, 41, -27, -22, -59, 20, 125, -104, 155, 71, 113, 22, 95, -169, 114, -160, 140, 173, -70, -101, 95, -87, 129, -138, -132, 171, 69, 126, -53, 69, 14, 25, 55, 14, -129, -184, -8, -200, 72, -92, 48, 93, -97, -153, -132, 42, 127, -159, 87, -56, -8, 158, -60, -13, -166, -138, -79, -154, 31, -43, 5, -131, -178, -50, 62, -264, 139, 24, 21, 0, -154, -143, 37, -57, 151, -31, -125, 79, -71, 11, 75, 145, 111, 69, 70, 165, -89, -190, -98, -113, -48, -56, -65, -269, 85, -62, 60, 17, -53, -131, -147, 121, 151, 53, -141, -34, 84, 100, -133, -178, 82, -42, -81, -167, 5, 111, 151, 8, -100, -246, -84, -149, 41, -37, -91, -138, -65, -142, -115, 172, -19, 14, 127, 178, 26, 107, -56, -68, 157, 253, 256, 127, -106, 70, -106, 51, -233, -227, -202, -166, -1, 78, 43, -109, -164, -79, -18, 45, 125, -108, -126, 162, -137, -5, 27, 17, 46, 37, 53, 221, 37, -73, 70, 136, -455, -293, -230, -380, -69, 38, 144, 110, 29, 81, -44, 56, -9, -108, 74, 18, -47, 147, -166, -69, 36, 288, 260, 131, 86, -14, 116, 9, -331, -143, -383, -426, 33, 168, -41, -152, -60, 2, -124, 56, 179, -16, -52, -32, -137, 136, -33, -37, -44, -132, -55, -260, -30, 22, -85, 24, -116, 2, 44, 33, -35, -52, -133, -41, -118, 81, -101, -155, 20, 35, 126, 29, -54, 112, 15, -148, -87, 39, -145, -180, -261, -262, -163, -103, -140, 162, 97, 34, 119, -147, -5, 45, 117, 105, -77, 157, -134, 134, 169, -113, 81, -161, -32, 1, -82, 45, -44, -117, -27, 22, -310, 31, -137, 115, -73, -120, -18, 49, -45, -155, 35, 140, -40, -97, -22, -159, 118, 119, 33, -45, 101, 22, 6, -61, -11, -74, -168, 23, -122, -94, -93, 55, 31, -100, -156, 41, 91, 6, -98, 58, -144, -20, -116, -107, -103, -42, -162, -39, 5, -9, -117, 49, -200, -73, -136, -128, 51, 48, 396, 285, 428, 103, -143, -158, -113, 18, 53, -164, 162, 124, -74, -150, -113, -132, -132, 12, -94, -46, 104, -9, 84, -205, -18, 40, -121, -154, 323, 313, 229, 259, -28, -168, -58, -114, -141, 164, 37, 85, -65, -38, -89, -142, -110, 110, 64, 21, -81, 74, -228, -155, -26, 120, 197, -70, 395, 379, 165, 233, -28, 168, -109, 110, -55, 83, -23, 33, 116, 110, 132, -152, 69, -127, -30, 18, 44, 87, 247, -50, 159, 63, -35, -21, 167, 144, 156, 181, -104, -54, 61, -1, -24, -50, 29, 32, -120, -14, 22, 21, -99, 83, -168, -50, 176, 94, -10, 146, 119, 202, 182, 137, 5, -121, -74, -20, 36, 7, -70, -175, -3, -75, 81, -164, 28, 160, -114, -5, -143, 44, 17, -33, 84, 219, -34, -94, 226, 126, 234, 134, 121, -19, 95, 152, 23, -113, -85, -104, -91, -68, 20, 33, -27, 38, -144, -143, -115, 8, -101, -72, 39, 186, -97, 127, 157, 204, 254, -69, -116, 145, -6, 31, 62, 64, 156, 176, 80, -73, 136, -161, -94, 138, -84, -99, -129, 130, 1, 62, -89, 95, 87, -67, -31, -101, 169, 51, 151, -68, 105, 95, 70, 166, -33, -128, 61, 80, 21, -100, 1, -65, -27, 52, 89, -93, -33, -78, -109, 98, 147, -47, 92, 145, 123, -109, 160, -44, -57, -156, 1, -140, -86, -63, 113, 137, -67, 128, 124, 93, -126, 66, 153, 70, -58, -2, 49, 6, -136, -66, 111, 131, -127, 161, -59, 63, 90, 110, 157, -65, 127, -127, 74, 90, 66, -89, 132, -119, -157, 81, -10, 124, -38, -114, 115, 15, -105, 79, 7, 36, -16, 116, 118, 75, -137, 123, 63, 73, -46, 135, 81, -134, -28, 137, -159, 169, 64, 44, -77, -94, 159, -68, 103, -36, -131, -172, 17, 170, -47, -48, -55, 9, -14, 134, 3, -1, -123, 170, -91, -151, 58, 32},
    {-26, -27, 104, -102, 120, 57, -26, -9, -85, 90, 4, -59, 39, 180, -20, 153, -49, -154, -99, -20, -93, -171, 148, 123, 94, -115, -129, -151, 82, 158, -21, -127, 10, -49, -37, 46, 83, -133, -162, 180, -88, -156, -106, -163, -36, 108, -52, -14, 70, 6, 135, 131, -170, 104, -13, 180, -5, 176, 97, -86, 20, 181, 129, -142, 75, -53, -174, -28, -93, 114, -54, 121, -172, -64, -88, -94, -149, -105, 22, -71, -27, -41, 135, 151, 5, -56, -135, 164, -154, -71, -65, -59, -115, 103, -131, 51, -129, -149, 153, -110, 123, 17, -147, 163, -87, 131, -112, 127, -170, 4, 97, 157, 147, 118, 136, -104, -70, -70, -38, -37, 19, -115, 73, -111, -64, 7, 114, 89, 55, -120, 22, -139, -33, -24, -166, -76, 164, 165, -50, -159, -109, -33, 168, -124, 98, -138, 175, -39, 96, -52, 49, -106, -61, 219, 217, 204, -86, -23, -282, -189, -57, 53, -47, -120, 38, 117, -39, -120, -105, -89, -66, 52, 40, 78, -47, 117, -100, -6, 110, -111, -71, 202, 13, 128, -298, -65, -195, -286, 41, -92, -36, -147, -124, -68, -141, 148, -173, -3, -129, -64, 158, -114, 167, -96, 91, 24, 140, 24, 77, -38, -53, 216, -195, -174, -39, -186, 169, 90, 36, 138, -154, -77, -12, -92, 90, 153, -22, -54, 166, -14, -2, -47, 145, 27, 97, 115, 11, 42, 189, 17, -26, 26, -82, -48, 108, 128, -33, -152, -28, 68, -12, 91, -48, 53, -110, 88, 18, -100, -68, 97, -20, -107, 155, 67, 265, 83, 93, 247, -64, 8, -157, -89, -130, -101, -171, -159, 178, -90, 62, 126, 27, -121, 85, 38, 88, 97, 174, 30, -68, 48, -160, 132, -33, 45, 211, 139, -110, -76, 56, -124, 140, -144, 106, 129, -105, -20, -117, 82, 17, 48, -105, -101, -156, -61, 26, 130, 54, -32, 151, 73, 257, 114, 20, -57, 10, -206, -136, -57, 28, 35, -112, -39, 44, 172, 85, 153, 98, 35, -106, 64, 47, 42, 2, 14, -171, -100, -220, -1, -309, -340, -217, -140, -20, -75, 24, -54, 158, 156, 7, -61, 87, -159, -8, -53, 154, -170, 18, 88, 0, -141, 167, 12, -65, -200, -111, -135, -346, -338, -75, -290, -105, 9, 101, -155, 28, -132, -166, -156, 122, -130, -155, -15, 128, -82, -23, -158, -9, 34, 27, -55, -176, -247, -154, -249, -103, -32, -32, -69, 36, 72, -70, 51, -13, -1, 98, -73, -58, 156, -153, -1, 152, 44, 20, -84, -52, 135, 21, 11, -250, -279, 54, -155, -161, -346, -132, -46, 32, -127, 36, 94, -31, 145, 57, 144, 52, -128, -62, -100, 148, 99, 69, -66, -106, 97, -8, -93, 365, 161, 262, 314, -26, 272, 2, -29, -177, 25, -98, -41, -167, -161, -13, 119, 139, -141, 22, 148, -34, 122, -124, 160, 96, 160, 65, -44, 478, 245, 268, 396, 198, 255, 0, 212, 18, -220, -111, -150, -65, 179, 56, 80, 173, -41, 115, -19, 134, -110, 161, -93, -55, 94, -41, 40, 303, 410, 231, 168, 36, 95, -15, 53, -102, -229, -41, 74, -116, 40, 62, -22, 78, -30, 6, -166, 72, 62, -161, -40, 175, -23, 5, 151, 169, 122, 194, 225, 178, 184, 150, 356, 72, -148, 134, -5, -151, 18, -21, 137, -102, 120, 23, -154, 168, 5, -67, -7, 131, -64, -101, -128, 25, 193, 80, -6, 71, 129, 349, 135, 171, -5, -110, 142, -8, 77, 179, -157, -138, 83, -73, -105, -158, -163, 98, -125, -10, 39, -21, -166, 196, -83, 186, 232, 167, 202, 183, 152, 140, 143, -53, 42, 151, 169, 10, -17, -73, 166, -121, 29, -72, -78, -29, 179, -157, 33, -143, -119, 65, 94, 6, 25, 46, 122, 357, 349, -52, 33, 149, -173, 114, 162, -141, -116, 172, 16, -166, -81, -13, 69, 89, 179, -71, 18, 18, -27, -114, 172, 132, 6, 42, -92, 20, 72, 8, 179, 44, -40, 102, -114, -39, -51, -24, 102, 1, 109, 33, -51, 114, -87, -91, 5, -82, -166, 52, 8, -17, 167, 28, 130, -126, 26, 136, 32, 82, -43, -140, -12, -33, 137, -82, 166, 170, -82, -45, 144, 171, -18, -60, 14, 74, -79, 84, -153, -155, -38, -49, -64, 2, -61, -105, -65, 174, -32, -15, 29, 179, -86, 69, 82, 44, -143, 70, -148, 35, 88, -96, 129, -164, 129, -15, -100, -120, 163, -148, -101, -51, 48, 19, -131, -68, -90, -100, -28, 77, -94, -40, -35, 173, 170, 110, -84, -148, -63, -75, 10, 103, 131, 126, -47, 69, -58, -149, 73, -172, -23, -57, 73, 101, -63, 117, -72, -15, 87, 74, 176, -91, 60},
    {35, 142, -125, 89, 24, -81, -13, -61, 26, 135, 23, 43, 5, -161, -96, -4, -71, -115, 1, -62, -87, -17, -135, 147, 128, 72, -145, 94, 105, 91, -141, 49, 119, 22, 51, -15, 8, -168, 45, -149, -24, -77, 12, -133, 64, 101, -120, -141, -126, 130, 6, -14, -143, 50, 129, 112, 42, -152, -139, -162, -88, -132, -87, -45, 155, 39, 118, 71, -139, 80, -83, 49, -57, 173, -86, -82, 148, -171, 68, 76, 116, 162, 165, -157, 109, 48, 50, -133, 49, 165, 145, -24, -166, -52, 113, 67, -16, -160, -29, -14, 151, 46, -68, 7, -158, 164, -51, -11, -54, 60, 55, 74, -84, -68, -140, 55, -166, 33, 129, 135, -22, -19, -152, 58, 112, -94, -27, 117, 132, -92, 18, -110, -143, 142, 111, 90, -164, 122, -23, -60, 15, -149, 89, 27, -114, -112, -115, -159, 112, 202, -89, -79, -16, 70, -105, -94, 46, -67, -155, 98, 43, 26, 80, 60, -107, -52, -135, -133, 61, 126, 164, 43, -116, -145, 107, 26, 126, 180, 154, 198, -202, 45, 81, -120, 60, -54, 175, -154, 25, -122, 72, -117, -97, -6, 145, -106, -126, 89, -2, 144, -128, 50, -96, -124, 150, 116, 171, 13, -62, -78, 128, -116, -62, -36, 34, -75, 145, -86, 136, -143, 53, 140, -121, 164, -18, 156, 60, -73, -112, -72, -147, -129, -57, 56, 185, -44, -176, 9, -151, -187, -106, 165, 128, -38, 52, 11, 60, 62, 44, -86, -166, -19, 135, 22, 114, 174, -123, 67, 58, 168, 268, 165, 6, 204, -287, -49, -1, -189, 80, 9, 12, -34, 93, 150, 157, -117, 133, 80, -92, -155, -84, 143, 44, 75, -89, 74, -171, -47, 142, -27, 212, 5, -93, -183, -117, -286, -136, 182, -51, 149, 174, -107, -85, 57, 164, 146, -2, 102, -128, 168, 162, -120, -69, -145, -83, 109, 58, -49, 39, 270, -102, -178, -264, 25, 148, -45, -117, -123, -134, 24, 151, -4, 117, -20, 71, 80, -118, -55, 50, -153, -51, 10, 173, -9, 142, 3, 134, 65, -56, -224, -154, -147, 53, -42, -63, -90, 132, -97, -101, 78, -66, -1, -123, 161, 123, 126, -38, 88, -130, -174, -176, 29, 14, 35, -145, 3, -115, -211, -110, -289, 196, 114, -20, -12, 44, 115, -31, -86, 129, 57, -21, -8, -108, 43, -51, 174, -10, -6, 21, 144, 134, 10, 106, 57, -197, -302, -209, -283, 229, 22, 242, 94, 46, 13, -135, -46, -144, 42, -22, 94, -104, -122, -36, 149, 73, -31, 6, -153, 199, 89, -46, 56, -331, -27, -309, -143, -6, 160, 179, 144, 40, 137, -155, -63, -93, 172, -40, 79, 64, -105, -94, -82, -34, -95, -173, 130, 228, 5, 4, -112, -85, -34, -275, -270, 242, 180, -24, 181, -72, -50, 95, 111, -39, 157, -35, 95, -9, 139, 141, -148, 150, 112, 102, -109, 171, 187, -13, 221, -309, -272, -134, -121, 189, -31, 303, -23, -131, -175, 23, 151, 58, 114, -177, 11, -18, -2, -156, 62, 0, 94, -7, -126, 117, -54, 194, 101, -267, 16, -144, -299, 183, 50, 248, 252, 168, -1, -19, 90, -136, 14, 14, -148, -34, 124, 123, -145, -148, -85, 132, -132, 108, -112, 68, -20, -13, -211, -70, -213, 157, 216, -51, 214, 29, -135, -28, -122, 69, 91, -145, 1, 109, 149, 2, 154, 9, -43, 124, -6, 21, 26, 151, 147, -154, -176, -116, -92, -9, 186, 80, 24, -144, -96, 157, -72, -121, -16, -71, -167, -67, 16, 13, -50, -22, 161, -44, -89, -61, 14, 121, -75, -42, -287, -147, -19, 27, 105, -24, 168, -163, 123, -112, 130, -54, 79, -66, 139, -134, -116, -5, -151, -110, 154, 165, -47, 177, 43, -50, 100, -62, 60, -201, -55, -77, -55, -92, 261, 105, 100, 2, -75, -126, -79, -48, 90, 11, -153, -171, -145, -35, 151, 44, 104, -15, -51, -141, 129, 96, -119, 3, -7, 41, 155, 26, 11, -161, -159, -112, -165, 81, 76, -135, 120, -126, -73, -93, -49, -91, -6, -33, 170, -161, -130, -160, 40, -161, 116, 3, 10, 19, -121, -106, -68, 32, -106, -137, 163, -170, 105, 100, -73, -130, -129, 70, 49, 97, 153, 64, -126, -96, 118, -108, -155, 69, -38, 147, 51, -145, 156, -88, -61, -40, -161, -5, -136, -38, -55, 92, 104, -125, -52, -50, -126, 103, 71, -113, -51, -146, 42, -134, 170, 98, -43, 22, 142, 16, -116, -46, 121, 49, 48, 129, 140, 148, -144, 15, 84, 88, 36, -122, 101, 74, -149, -18, -119, -60, -174, -39, 16, 40, 55, 116, -104, -138, 124, -125, 166, 121, -4, 167, -147, -72, 45, -56, 149},
    {-148, 23, 39, 60, -81, -44, 126, -104, 122, 28, 97, 82, -98, 29, 133, -19, 173, -10, -122, -37, 166, -57, 136, 142, -47, -143, 89, -60, 106, -17, 0, 105, -37, -14, -39, -44, 16, 119, -45, 13, 64, -74, -73, 161, 89, 33, 54, -163, 44, 8, 25, -45, -139, -102, 165, -27, -6, -153, -159, 82, 20, 10, -86, 95, -114, -105, -11, -70, -85, 56, 59, 120, -26, -148, -73, 175, 42, 81, -171, 13, -159, 31, 157, 172, 22, -7, 162, 67, -150, -7, -88, -6, -11, 34, -45, -113, 7, 123, 64, -50, 156, 150, -98, -157, 91, 122, 169, 145, 42, 15, -163, -85, -9, 52, 27, 92, -73, 30, -141, -25, 95, 74, 179, -73, 4, -56, -18, 131, 71, 140, -101, 136, -153, 146, -53, -61, 13, 160, -155, -45, 131, -31, -102, -21, -34, 150, 99, 5, 151, -33, -179, -104, 36, -62, 218, 152, -55, 57, 101, 180, 142, 10, 104, 27, 24, -134, -127, 17, -80, -165, 82, -162, 42, 23, 172, -2, -178, -3, 100, 154, 36, -6, 204, -50, 68, -7, -137, -28, -79, 73, 163, -78, 115, -151, 19, -147, 160, 102, 60, 120, 56, 173, 80, 156, -17, -159, -9, -154, 94, 55, 103, -113, -81, 20, 184, -17, -21, 83, 44, -65, -26, -93, 171, -125, -42, -162, -92, 104, -102, -144, -5, -170, -170, 87, 75, 126, 187, 124, -98, 162, 148, 131, 28, -71, 129, 85, 175, -116, -93, -97, 108, -103, -148, 180, -162, 123, -40, 127, 26, 148, 196, -133, -106, -45, 223, 300, 147, 200, -43, 173, 231, -15, 1, -138, 24, 5, -122, -14, -52, 12, 36, -169, 99, 82, -41, -153, 98, 170, -51, -23, -70, 69, 39, 113, 234, 185, 25, 36, 90, -109, -142, 144, -144, 78, 155, -76, -40, 30, 140, 161, 90, -144, 62, -27, -2, -156, -67, 146, 29, -28, 122, 286, 251, 82, -69, -20, 213, 92, 17, 41, -43, 113, 17, -133, -127, 16, 160, -61, 135, 99, -84, -160, -135, 86, -156, -93, -48, 30, 41, 147, 175, 196, 90, -140, 87, 45, 22, 78, -29, -121, 64, 14, 55, -50, 149, 37, -139, -12, 94, 111, 5, 143, -130, -78, 93, 91, 243, 305, 34, 306, -86, -135, -112, -51, -82, -59, -124, -69, 29, -14, -50, 94, 146, 97, -55, 91, -119, -125, -51, 115, -137, -202, -178, 82, 225, 93, 201, 187, 31, -115, 107, -88, 71, -167, -38, -48, 20, -145, 109, -94, 70, 115, 27, 90, 60, -46, 113, -67, -20, 40, -90, -115, 164, 290, 332, 195, 35, 120, -165, -116, 77, 118, 135, -24, -140, -16, -91, -68, 101, -144, 122, -17, 41, -139, -53, -137, 84, 31, -92, -176, 317, 108, 43, 186, 136, -195, -112, 135, -112, -133, 29, 132, -1, 179, 70, -146, 180, -27, -69, 26, -64, -142, -173, -13, 42, -52, 98, -154, 85, 43, 44, 88, 84, 125, 150, -117, 142, -54, -134, 134, 55, -115, -19, -69, 90, -10, 179, -152, -48, -2, 4, -61, -1, 54, 77, 29, 286, 180, 281, 92, -57, -84, -32, -96, 168, -61, -138, 14, -149, -132, -92, -8, -17, 112, 89, -20, -53, -61, 102, -155, -382, -105, -216, -341, -146, 103, 79, 24, -27, -18, 146, 141, -95, 115, -103, -95, 64, -31, 160, -141, 8, 156, 149, -114, -42, 50, -117, 173, -62, -327, -340, -357, 97, -159, -83, -68, 14, -174, -119, 130, 153, 105, -165, -57, 53, -75, 150, 51, -144, 149, 170, -146, 17, -63, -34, -109, -181, -47, -208, -356, -9, -109, 75, -74, -133, -132, 75, -107, 101, -98, -56, -7, 160, 156, -99, -43, -117, 7, -10, 146, 157, -36, 4, 147, -99, -384, -274, -236, -144, -161, -213, -1, -108, -180, -119, 85, 132, -2, -25, 177, -102, -95, -67, -111, -37, 151, 46, -25, 161, -154, -96, 30, 48, -158, -28, 60, 77, 53, -57, -140, -20, -125, 165, -3, -58, 101, 3, -62, 119, 138, 71, -157, 30, 101, -122, -90, 142, -167, 95, -2, -12, -169, 116, -42, 20, 68, 75, 165, 16, -27, 163, 57, -68, -127, 125, -45, 61, -6, -103, 39, -150, -24, 20, -20, 93, 122, 106, -158, -98, 17, 161, 124, 127, -63, -19, -5, -119, -160, 166, -86, -83, -145, 159, 36, 65, 150, -48, 49, -158, -103, 126, 99, -47, -40, 18, -171, -84, -98, -85, 112, -73, -102, 10, 136, -86, -145, -44, 93, 24, 119, 168, 111, 41, -1, -160, 178, -34, -119, 66, -68, 38, 36, -12, 125, -79, -9, 21, 63, 108, -32, 58, -118, 160, -38, 86, -163, -101, 0, 140, 16, 158, -1, 1, -130},
    {104, -88, 135, 139, 153, 3, 59, 92, -133, 33, -167, -4, -128, -118, -51, -26, 40, -155, -7, -118, 20, 50, 23, 79, -65, 94, -27, -7, 48, -175, 51, 36, -72, -150, -150, 145, 62, -137, -55, 28, 113, -163, -96, 136, -177, -107, 159, 36, -87, -157, -175, -95, 130, -33, 77, 144, -35, -113, 1, 141, 106, -159, 68, 25, 141, -137, 12, 131, -35, -7, -153, -82, -66, 156, -80, -17, 59, -128, -8, 82, 129, 43, 58, -137, 152, -136, 93, -88, 153, 79, 89, -104, -24, 40, 93, -140, 159, 133, -87, 112, 0, -16, -69, 24, 79, -35, 41, 67, 69, -157, 127, -19, -88, -97, -6, 132, -47, 87, -149, -10, 169, 89, -109, -5, -98, -35, 93, 93, -102, 148, 31, -50, -2, 31, 20, -9, -2, -121, 109, 13, -134, 91, 149, 153, -49, -131, 4, -136, 158, -110, -83, -31, 120, 265, 139, 41, 107, 194, 64, 230, 13, 71, 154, 138, 153, -95, -131, -77, 139, 164, 124, -139, 151, -34, -175, -22, -159, 16, -54, -5, 200, 292, 213, 139, 304, 339, 57, 203, -77, -158, 64, 126, -120, 107, 122, 145, -87, 139, -69, 12, -164, -171, 75, -25, -84, -108, 62, -173, 267, 8, 54, 117, 185, 140, 127, 352, 45, -171, -27, 133, -76, -145, 91, 31, 19, -160, -134, 41, -109, -6, 16, -82, 163, 124, 84, -147, 18, 157, 37, 329, 70, 184, 138, 240, -135, -29, -84, 129, -167, 140, 115, -75, 100, -169, 166, 9, -72, -54, -162, 168, -402, -188, -262, -82, -185, -90, -105, -30, -44, -1, 3, 192, -112, 23, -105, 127, 149, 7, -52, -101, -166, -87, 49, 10, 152, -41, 64, -11, -237, -325, -257, -252, -22, 57, -151, -257, 104, 118, -10, 196, 165, 158, -112, 130, 67, -18, 12, 115, -10, -45, -6, 26, -118, 141, 56, 48, -388, -204, -373, -391, -88, -129, -67, -243, 81, -10, 277, 128, 60, -63, -151, 163, -78, -31, 50, -170, 105, 11, -83, -160, -125, 135, 65, -93, -136, 86, 44, -17, 27, -32, 128, 236, -110, 38, -26, -13, -89, 108, -10, 15, -73, -114, -150, 71, -111, 65, -39, -29, -13, -54, -141, -71, 73, 72, -58, 3, -39, -27, -97, 218, -101, -95, -78, -124, 46, -155, -134, 49, -59, 65, 17, -93, 51, -138, 11, -27, -88, 30, 128, 176, 59, -13, -82, -69, 67, 27, 221, 25, -40, -34, 120, 52, 36, -62, 110, -166, 127, 0, -41, -8, 60, -178, 127, -24, -57, -136, -20, -6, -15, 78, -8, 181, 107, 184, -66, 34, -54, 27, 134, -149, -154, 117, -104, 59, 11, 113, -138, -135, 16, 152, -34, -67, 36, 151, 120, 172, -305, -273, -98, -23, -171, -190, 3, -255, -217, -170, -151, -93, -55, 39, 26, 10, 49, -88, -152, -139, -98, -4, 116, 71, 98, -57, -33, -42, -243, -290, -103, 40, -215, -258, 1, -186, -55, -101, -15, -203, 54, -15, 44, -18, -117, 0, 3, 107, 79, 54, -143, 72, -4, 135, 149, -158, -24, -296, -184, -118, -225, -9, -271, -213, -145, -95, -27, -107, 55, -41, -181, -144, 7, 61, -38, 75, 4, -153, -109, 117, 76, 139, -139, 169, -70, -142, 212, -47, -2, -179, -34, 81, -61, 62, -110, 48, -60, -103, -72, -120, 139, -38, -94, -24, -64, 88, 161, -23, 122, 20, -128, 63, 34, 86, 171, 12, 81, 25, -67, -23, -57, 178, 60, -161, -68, 40, -163, -170, -21, -63, -22, -90, -123, 59, 3, -112, -67, 30, -154, -123, -121, 145, 120, 117, 17, -4, -70, -13, -159, 47, 100, 5, -53, -85, 49, 63, 128, -58, 95, 15, 134, 9, 2, 23, 87, 158, -155, -160, 190, 42, 71, 25, -206, 33, 24, -130, -67, 119, -148, 138, -93, 29, 149, 61, -36, 63, -60, -84, 173, 90, 48, -55, -164, -172, 15, 89, 9, 115, -169, -53, -98, -21, -155, 160, -101, 146, -32, 168, 15, 150, -180, 83, 140, -134, -143, -31, 151, 7, 7, -132, -183, 105, -150, 41, 145, -104, 55, -151, 30, -122, 79, -74, -13, 30, -119, 83, -78, 55, -127, 64, -136, -29, -93, 85, -90, 136, 135, -108, 41, -153, -47, 79, 53, 40, -78, -45, -146, 75, -3, 70, -94, -69, -63, -171, -62, 106, 136, -1, -20, -173, 131, -173, 155, -7, -58, 147, -171, 25, 12, -104, -25, 53, 72, -184, 150, -122, -98, -86, -167, -137, 167, -71, -142, -144, 76, 123, -94, -172, -101, -164, -145, -30, -99, 4, -95, 154, 139, 20, -57, -48, -33, 77, -22, 124, 155, -65, 16, -148, -112, -37, -107, 135, -125, -18, 34, 68, -46, 130},
    {29, -13, -152, -15, 112, 39, 120, -1, -135, -171, -69, 73, 103, -73, -3, -28, -30, -96, -131, -109, -159, -100, -167, 47, -63, 169, -104, -52, -47, -170, 124, -166, 155, 145, 12, 13, 56, -39, 56, -163, -158, -12, 22, 139, -139, 119, -102, -38, -64, -31, -122, 4, 107, -19, -4, 129, 74, -5, -86, 138, 27, -96, -80, 112, -161, 172, -129, 108, -36, 1, 139, -33, 15, -156, -175, -88, 69, -135, -136, -27, 55, 82, -111, -149, 161, -83, 127, 128, 103, -112, 116, 97, 38, -53, -83, -130, 4, 30, -47, -6, -49, 54, 140, -120, -40, -124, 45, 81, 152, -69, 162, -154, 39, -157, 150, 7, 63, 118, -123, -159, 138, -63, -132, -10, 38, -160, -84, -163, -29, 140, 171, 48, -118, 147, 6, -122, 153, 89, 83, 78, -105, -98, 68, -99, -20, 102, 102, -11, 13, 27, -36, -189, 79, 98, 27, 78, -65, 21, 183, -104, 77, 70, -134, 150, 27, -50, 93, -86, 71, -163, 121, -15, 48, -94, 67, 98, -105, -47, -108, 55, 163, 284, 269, 132, -55, 5, 154, -56, 12, 111, -45, 49, -87, -134, 105, -138, -83, 128, -53, 167, 174, -84, -160, 75, -113, -235, -19, -257, 292, 35, 32, 46, 202, 104, 149, 3, -55, -92, -3, 19, 48, -80, 163, -116, 164, -171, -7, -56, -18, 24, -19, -30, -12, -27, 29, -184, 204, 191, 117, 158, -27, -91, -67, -104, 68, 59, 161, 83, -158, 137, 132, -19, 34, 173, 13, 144, -146, -114, -18, 31, -36, 21, -190, -312, 247, 177, 31, 134, -61, -49, -146, -215, 167, 59, -36, -74, 78, -87, -108, 9, -75, 45, -133, 57, -74, -175, -132, 153, -18, -244, -50, -113, 305, 95, 211, -14, -184, 14, -129, -224, -133, 77, 53, -45, 158, -168, -66, 152, -66, -86, 15, 115, -145, 161, 105, -110, -82, -189, -183, -51, 303, 11, 109, 133, -195, -196, -307, -78, -27, -102, 111, 109, -3, -72, 50, -72, -92, 88, -167, -143, -177, -122, -150, 174, -114, -161, -132, 115, 222, 165, 341, 175, -150, -198, -136, -156, 62, -70, 24, -149, -108, -30, 158, -43, 60, -83, -129, -148, -63, -122, -109, 93, -215, -20, -82, -40, 235, 148, 141, 302, 35, -202, -237, 50, -55, 20, -52, -135, 33, 8, -102, -16, 109, 34, -142, 17, 75, 101, 48, -120, 38, 28, -207, -68, 158, 274, 116, 243, 56, 16, 56, 75, -174, 45, -29, 130, -87, 169, 43, 107, -140, -110, 94, -166, 115, -169, 54, -42, 3, 27, -98, -174, 58, 244, 223, 305, -92, -121, -124, -262, -60, 171, 138, -59, 35, 121, -20, -168, -150, 6, 168, 69, -150, -110, 100, 123, -7, 7, -214, 68, 243, 56, 216, 41, -365, -307, -315, -256, -25, 8, -10, -85, -161, 37, -34, -70, 133, 88, 131, 1, -126, 73, -105, -18, -201, 69, -179, 99, 272, 126, 228, 182, -92, -229, -105, -215, 162, -2, -14, 104, 111, 20, -111, -7, 170, 89, 114, -164, -9, 51, 119, -156, 73, -29, -154, -110, 59, 150, -17, 18, -90, -330, -301, -221, 8, 93, -16, 99, 48, -135, -122, -19, -33, 88, 35, -36, -114, -96, 24, -29, 144, 23, 202, 263, 191, 273, 448, 222, -58, -239, -51, -240, 166, 79, 103, 72, 35, -17, 129, 162, 3, 160, 32, 18, -12, -99, -179, -90, 141, 96, 122, 311, 227, 258, 143, 121, 3, -65, -4, -219, 27, -85, -95, -170, -129, -65, -133, 174, -65, -134, -102, 29, -150, 132, 163, -84, 120, -28, 188, 106, 198, 174, 333, 247, -206, -27, -69, 34, -134, 100, 67, -137, 70, -23, 160, -125, 51, -42, 165, -58, 165, 144, -79, 113, 317, 53, 112, 146, 208, 102, 180, 201, -112, -210, 39, -22, -148, 54, 54, 166, -174, -88, 156, 151, 81, 99, -145, 7, -94, -111, 114, -127, -8, 156, -112, 172, 177, 22, -118, -61, -25, -64, -77, 169, -123, 86, -177, 31, 151, -76, -106, 52, 79, 65, -63, -84, 164, 151, -16, 124, -15, -24, -122, -22, 15, -166, -20, 99, 68, 49, 142, -169, 21, 103, 15, -57, -129, 140, -8, 135, 28, 67, 106, 58, -34, 6, 109, -39, -39, -140, 153, -142, 55, -28, -32, 65, -154, 35, 99, 118, -113, 144, 57, 135, -2, 17, 153, 146, -16, -76, -32, -38, -73, -80, 132, -148, 68, -114, -56, -156, -80, 98, 140, -96, -10, -11, 134, 92, 5, 67, 125, -177, -36, 144, 89, 13, 12, -52, 12, 59, -26, 78, 132, -119, -15, -32, 68, -87, 50, 136, -27, 148, 176, -140, -89, 160, 162, -137, -167, -116, 177, -108, 3, 125},
    {-168, 34, -74, 128, -73, 63, 60, -97, -167, -29, -70, 109, 111, -11, 42, 44, 117, -24, -71, -84, 17, -18, -23, -143, 78, -100, -106, -29, -100, 27, -43, -16, 16, -104, -120, 138, -17, -27, -169, 2, 21, 26, 72, -114, -83, 109, 156, -129, -1, -104, -153, -63, -121, 76, 14, -129, -173, 113, -114, 39, -57, 37, -62, -147, -99, -104, -28, 55, -76, -175, 6, 37, 160, 26, -8, 23, 152, 115, -62, -90, -85, -2, 84, 8, -154, 81, 106, -70, 51, -27, 136, 122, 10, 67, 135, -6, -66, 97, -102, -35, 127, 76, -29, -95, -48, -75, -116, 91, -83, -23, -40, 173, -37, -147, -148, 38, 32, -23, -25, -157, 3, 1, -124, -138, -135, -149, 43, -111, -86, -114, 167, 124, -94, -60, -95, -5, -166, 61, 10, 143, -120, 105, 103, -131, -35, -121, -90, -85, 36, -14, 174, -114, -44, -315, -120, -269, -365, -111, -312, -183, 30, -11, -3, 82, -147, 60, 137, -157, -125, 77, -23, -39, -122, 5, -136, -9, 112, -74, 11, 181, -148, -96, -244, -124, -405, -373, -347, -277, 120, -51, 52, 74, 30, -49, 29, -60, -143, 176, -131, -149, 133, -65, 57, -63, -20, -69, -42, -22, -137, -211, -63, -378, -241, -210, -96, -402, 26, 126, -91, 139, -170, 81, 157, 54, -21, -159, 156, -10, -165, 68, -11, -134, -84, -135, 42, 61, -216, -104, -87, -175, -412, -168, -270, -213, 56, -52, 152, -127, 58, -174, 156, -135, -142, -61, -48, -99, 35, -15, -165, -65, 305, 256, 274, 266, -69, -142, -80, 115, 147, -30, -204, -156, -63, 29, -148, 156, -44, 147, 97, 89, 36, 47, 51, 50, 18, 172, 85, 100, 325, 87, 43, 189, 7, 115, -27, 26, -19, -191, 12, 91, -120, 34, 33, -117, -127, 169, -37, -99, -114, 60, 42, 48, -142, 140, -38, -68, 182, 156, 317, 347, -73, 123, 100, 148, -118, -2, -111, 81, -167, 24, -56, -60, 56, 126, 38, 123, -79, 5, -12, -174, 29, 60, 33, 90, 73, -104, -83, 90, 148, 75, 210, 250, -47, 92, 65, -46, 87, 51, 51, 23, -172, 70, -47, 159, 116, 32, -85, -106, -66, -4, -75, 2, -62, 225, -84, 205, 370, 237, 308, 199, 66, -38, -48, 42, 0, 27, -76, -47, -147, -154, -92, -148, -143, 111, -167, 55, -81, 133, -10, -68, 55, 12, 71, -88, 401, 199, 171, 301, -30, 137, -1, 92, -140, 121, 84, -106, -125, -62, 166, -88, -17, -167, -40, 25, 158, 1, 112, 16, -113, -8, 83, 210, 352, 128, 128, 116, 168, 144, 107, -24, 6, -12, -86, 2, -172, -126, 139, 90, -31, 5, -43, 89, 104, 95, 76, -105, 101, 139, 94, 248, -60, -127, -38, 167, -31, 108, 42, -84, -4, 71, 6, 136, -74, -148, 151, -39, 28, 104, -62, 77, -131, -74, -126, 109, 58, 238, 315, 166, 7, -16, -61, -9, 105, 244, 226, 195, 138, -13, 56, 137, -30, 166, -30, 34, 75, 168, -90, 91, 7, -76, 102, 18, 214, 96, 149, 199, -34, -103, 158, -1, 148, 39, 22, 34, -34, 15, 10, 1, -131, 1, -116, -135, 150, 41, 56, -39, 147, 47, 100, -42, 17, -34, -20, -261, -226, -224, -231, -23, -154, -136, -68, -90, -97, 104, 24, -172, -30, -33, -136, 64, 69, 79, 76, -178, 163, 112, 147, -170, 13, -32, -20, -290, -59, 22, -80, -120, 176, -7, 52, 7, 156, -149, 0, 66, 103, 28, 143, 153, -155, -37, -169, -57, 11, 149, 123, -135, -288, -113, -130, -221, -6, 7, -185, -5, -29, 102, 8, -115, 156, -12, 83, -46, -174, -139, -4, 71, -60, 69, 64, 69, -5, 147, -4, -16, -242, -212, -306, -94, -231, -212, -48, -206, -75, -100, 113, -110, -10, 5, 67, 49, 108, -160, -73, -73, -124, -74, -65, 8, 61, -46, 74, -59, -71, 12, -166, -145, -26, 154, 83, -148, 121, 83, 43, 117, -30, -97, 9, 20, 16, 28, 158, 144, 134, 113, 157, -143, -85, -2, 129, 1, 93, -127, -89, 81, -115, -52, -83, -51, 72, -42, 23, -145, 106, -44, 52, 74, -104, 136, 37, -28, -111, 153, 92, -104, -53, 111, 74, 91, -19, 69, -41, -108, 54, 167, -67, -10, 62, 16, 126, 94, -152, 174, 93, 128, 56, 127, -139, -54, 135, -104, -149, 104, 117, -120, 127, 66, 4, 118, -28, -110, -78, 2, 13, 109, 102, 34, 104, -103, -159, 130, -149, -82, 72, -36, 133, -69, -169, -69, 28, -45, 16, 131, 147, -85, -13, 20, 162, 176, -89, 81, -40, -174, -172, -14, -12, -163, 67, -76, 24, -72, -112, -34, -95, 11},
    {-112, -4, -129, 55, 88, -142, -19, -158, 28, -89, 8, 1, 145, 12, 26, -37, 153, 93, -79, 122, -29, 111, 110, -120, 65, -75, -79, -77, 70, -101, -183, 70, -119, -147, -97, -46, -11, -169, 158, 73, -66, -69, -26, 38, -134, -117, 124, -91, -42, 123, 46, -63, 57, -175, 80, -12, 106, 157, 147, 139, 1, -55, -14, 59, 131, -105, 146, 106, 169, 130, -83, -143, -140, -80, 36, 100, 135, 35, -180, -117, -146, -57, -7, -165, -63, -123, 46, -17, -11, -32, 160, -109, 0, 80, 13, 146, -49, -18, -152, 32, -77, -127, 13, 4, -158, 63, 38, -115, -18, 72, 6, -42, -68, 31, 146, 56, -155, -14, 132, -149, 162, 150, -156, 149, -55, 117, -28, -29, 41, 94, -165, 27, -109, -62, -61, -15, -68, -144, -128, -172, -15, 154, -139, 151, 78, 44, 46, 115, -90, 53, 125, 82, 269, -4, 214, 165, -31, -42, 56, 155, -8, 108, -40, -148, -162, -161, -48, -63, 76, 82, -160, -104, -86, 8, -133, -133, 212, 157, -60, 16, 99, 254, 151, 16, 97, -22, -68, -32, -6, -57, -93, -42, -176, 89, -123, -169, 51, 89, 105, -7, -108, 76, 69, -96, 201, -84, 221, 180, 215, 304, 228, 40, -11, -132, -28, 98, -45, -65, 26, 131, -166, -45, -125, 62, -147, 56, -81, -113, 152, -178, -27, -175, 48, 55, -11, -75, 101, 210, 246, 157, 45, -91, -61, -105, -96, -101, 3, 14, 152, -114, 48, 105, 17, -91, -92, -163, -75, 82, -170, -103, -71, -43, -161, -72, -228, -311, -225, -164, 219, -91, 61, -1, 2, -177, -67, 111, 17, -24, -83, -77, -46, 112, 159, -26, -45, 114, -35, 12, -239, -55, -129, -33, -89, -294, -115, -80, 4, -55, -118, 44, -58, 12, -116, 126, -89, -99, -11, -9, -99, -83, -123, 75, 94, -18, 69, 82, -267, 22, -32, -244, -303, -321, -316, -103, 46, 156, 150, 98, 64, -177, -72, 44, -180, -168, 119, 61, -88, 57, 103, -73, -169, 148, -59, -140, -39, 58, -135, -114, -347, -85, -365, -233, 204, -69, 217, 211, 134, -112, 47, 85, 165, -118, 86, -64, -117, -35, 98, -18, 7, 170, -45, 38, -81, -76, 38, 121, -244, -158, -402, -358, 57, -116, -35, 60, -178, -90, -3, 23, 149, 43, -36, 146, 95, -113, -135, 58, 16, 98, 77, 38, 136, -22, -175, 76, -346, -158, -99, -189, 89, 39, 3, -4, 45, 85, 60, -111, -6, 97, -16, 2, 91, 50, -39, 133, -121, 168, -135, -180, 102, -124, 50, 69, -133, -82, -333, -190, -80, 23, 177, 1, 31, -2, 44, 164, -166, 21, 125, -13, -155, 15, -62, -130, 123, 4, 151, 98, 231, -18, 133, 54, -46, -308, -269, -187, -97, -118, 18, -159, -164, -49, 77, 18, -34, 21, -55, 150, -160, 55, 132, 107, -120, -79, 77, -153, 273, 241, 244, 19, -115, -127, -72, -354, -182, -56, -137, 6, 141, -42, 122, -180, -121, -170, -69, 139, -152, 36, -26, 150, -136, -105, -169, -26, 84, 296, 197, 203, -177, -331, -215, -13, 103, 125, 103, -156, -101, -179, -77, -144, -19, 60, 122, 82, 145, -158, -177, 50, -82, -89, -61, -83, 164, 135, 158, 222, -66, -120, -152, -87, 134, 142, 109, -39, 25, 18, -9, 10, -8, 23, 68, -143, 82, -137, -162, 162, 153, -165, -22, -118, 154, 276, 315, 205, -85, 8, -91, 115, 185, 73, -8, -20, -174, 105, -22, -66, -17, 108, -136, 121, 133, 154, -45, -103, -53, -67, -118, 33, 151, 288, -7, 205, 66, 61, 105, 52, 209, -4, 52, -117, -182, -98, -149, -94, -118, -166, 142, -186, 81, -128, 139, 131, 49, 53, -181, 168, 291, 294, 214, 100, 109, -98, -9, -172, 203, -76, -42, 77, 88, 37, -100, -182, 87, 167, 101, -17, 139, -37, 6, -16, -23, 89, 2, -72, -92, -171, 26, -102, -132, 50, 63, 88, -6, 134, 149, 106, 45, -75, 169, -84, -115, -30, -165, 169, 25, 12, 48, -8, -175, 36, 74, -36, 84, -101, -103, -129, -54, 118, 110, -43, 28, 70, -90, -127, 160, 36, 165, -65, 71, -103, -88, 2, -68, -122, -86, -167, 72, -10, -153, -120, -154, 34, -150, 83, -175, -96, 136, 72, -155, 104, -7, 117, 27, 61, 169, -105, 38, -19, -169, -177, -139, 45, 13, 14, -170, -14, 143, -42, 34, 92, 98, -2, 120, -45, 129, -95, -84, -161, 101, -32, -105, -106, 141, 121, 15, 40, -11, -43, 140, -137, -36, -64, -8, -20, -2, -136, -1, -100, -119, -156, 88, -32, 40, 74, 55, -15, -49, -50, 49, -7, 119, 129, -120, -133, 41, -74},
    {-174, 136, -104, 150, 75, 93, -106, -98, 6, -119, -74, -64, -125, -107, 100, -121, -167, 42, 163, -60, -138, 25, 146, 97, 40, -67, 14, -147, 64, 80, 165, -84, -176, 15, 72, 100, -115, -89, 4, -61, 125, -13, 104, 25, 95, -60, 118, -80, 19, -105, -13, -69, -88, 164, -122, 101, 170, -174, 70, -89, -160, -39, 152, -175, 31, -2, 130, -148, 56, 63, 60, 157, 113, -160, -14, -37, -67, -19, -45, -29, 171, -145, 147, -8, 41, 113, -50, -28, -30, -41, 153, 116, -142, -140, -25, -139, 40, -131, 7, -181, -62, 61, -7, 165, 133, -50, -161, 119, 142, 114, -133, 173, -91, 76, 139, -97, 143, -69, 168, -82, 156, -157, 73, 11, -11, -97, 72, -108, 16, -90, 158, -169, -104, -94, -35, -94, -9, 130, 72, 25, -147, 68, -117, 98, -90, -29, -52, 127, -141, 18, -134, 64, 255, 86, 103, 258, 125, 115, 149, 187, -146, 112, -25, -156, 97, -46, -140, 46, 132, 136, 160, 131, -182, -48, 111, -47, 31, 32, -56, 138, 112, 101, 284, 109, 6, 126, 232, 219, 104, 74, -85, 129, 140, -112, -133, 170, 126, 135, 136, 11, 52, 11, -164, 85, -7, 49, -5, -5, -5, 31, -8, 0, 285, -3, 37, 148, 36, -122, 100, 99, -95, -72, 153, 113, 66, -150, -35, 18, -115, -20, 35, -61, 93, 111, -69, 114, -35, 229, -18, -40, 170, 104, 264, 70, -82, -1, -19, -60, 72, 91, 123, 164, -85, 75, -35, 59, -11, 174, 76, 161, -305, -276, -312, -437, -133, -89, -218, -36, 215, 226, 379, 360, -119, -47, -27, -51, 103, 8, 23, 124, 109, -132, 69, -26, -75, -162, -6, -55, -512, -350, -324, -511, -206, 79, -217, 108, 255, 149, 125, 37, -94, -130, 39, -119, 9, 32, -78, -169, -169, -171, 81, -64, 102, -25, -22, 9, -346, -504, -552, -401, -105, -63, 5, -48, 259, 229, 301, 286, 5, 59, 131, -30, -33, 93, 32, -151, 135, -169, 84, 89, 155, -158, 35, -31, -128, -207, -44, -76, -337, -159, -117, -108, 139, -38, 155, 126, -70, -125, -22, -37, 24, 30, 86, -2, -143, 123, -69, 165, -132, 156, -145, -94, -225, 4, 59, -88, -46, -169, -153, -72, -81, -56, 134, 139, 166, 140, -137, 114, -32, 169, -9, 18, 10, -66, -151, 140, 108, -129, 98, 46, -94, -152, 61, 8, -180, -160, -341, -205, -118, -109, 52, 138, -36, -101, 53, 131, 87, 131, 12, 86, -126, -57, -40, 1, 152, 132, -125, -118, -114, -141, -23, 77, -31, -140, -79, -193, -109, 2, 19, 74, -101, -47, -50, 164, -17, 87, 83, -83, 24, 139, -12, 155, -101, -151, 139, 122, 245, 132, 224, 185, 75, -23, -88, 107, -279, -243, -276, -232, -12, -162, 137, -23, 28, -125, -178, -97, 74, -142, 142, -101, -105, -118, -169, 95, 199, 106, -41, -3, -52, 117, -140, 37, -276, -328, -273, -407, 104, -90, 82, -153, 155, -113, 135, 106, 163, -12, 75, -47, -115, -27, -123, 166, -75, 103, 115, 87, 10, -180, -24, -118, -96, -164, -91, -420, -77, -105, -173, -96, 61, -96, -4, 133, 69, -42, -48, -16, -117, 50, -49, 123, 173, 119, 38, -23, 139, 34, -56, -71, -126, 89, -105, 3, -16, 28, 133, 124, -17, -171, -24, 32, 20, 53, -124, 54, -117, 89, -58, 70, -81, 52, 150, -15, 143, 83, 71, -15, -16, 27, -18, 63, -26, -109, -104, -175, -71, 87, 105, -107, 163, -1, 146, 68, 75, -151, -99, -174, 161, 25, 183, 24, 153, -95, -73, -19, -39, -58, 87, -149, -56, 118, -151, 152, 175, -146, -74, -51, 99, 36, 50, 88, -135, 116, 72, 20, 215, 153, -23, 58, 35, -119, 197, -97, 66, -5, -176, 141, 117, 5, -99, -136, -49, -91, 1, 164, 24, 135, 51, -10, 125, -13, 131, -74, -138, 123, 33, 137, 154, -160, -3, -44, 43, 100, -83, 19, 70, -131, 106, 33, 154, -62, -136, 0, -147, 160, -164, 89, 8, -48, -159, 41, 27, -78, 143, -71, -25, 10, -142, 149, -43, -155, -39, 35, 0, 67, -161, -73, 114, -152, 128, -143, 120, -49, 40, -121, -152, -105, -137, -64, 2, 32, 103, 58, 31, -38, -11, -34, 119, -103, -180, 51, -110, 136, 125, -154, -143, -6, 38, -80, 76, 33, -67, -172, 89, -99, 113, -31, 30, 131, 126, -47, -109, 99, -25, -108, 140, -111, -172, -176, 40, 53, -69, -68, -61, 65, -160, 153, -103, 174, -119, 94, -102, -143, 131, 123, -40, 67, 19, 125, -68, 5, -7, -54, 136, -120, -125, 23, 57, -107, -45, 159, -92, 59, 85, -16},
    {156, 87, -17, 23, 67, 32, 135, -50, -73, -102, -166, -161, 129, 60, 54, 38, 124, -10, 128, -49, 149, 72, -84, 20, 12, -129, 32, -66, -158, 163, 51, 132, 61, -49, 4, 60, 162, -90, 134, 149, 61, 151, -35, 158, 68, -161, 145, -6, -12, 25, -126, -11, 113, -173, -83, -173, -31, 78, 105, 157, 37, -88, 149, 96, 27, 65, 151, 77, -49, 77, -163, -42, -31, -115, -170, -129, 55, 105, 172, -54, 36, 158, -119, 75, 92, -148, 129, 107, -162, -143, -159, -60, 4, 14, -84, 147, -48, -164, -69, 9, -29, -78, -134, 108, 174, -61, -42, 38, 74, -33, 143, 20, -18, 50, 164, 99, -161, -62, -10, -65, 72, 116, 81, 174, -80, 139, 93, -48, 80, -143, 101, 12, -70, 55, 45, -103, -169, -26, 23, 133, 151, 13, 92, -23, 86, -104, -45, 51, -228, 21, 63, -94, 163, 309, 284, 108, -35, 89, 53, -93, -70, 142, 71, 172, 96, 156, -101, 96, -169, 59, -10, -53, 126, 126, -167, 40, -105, -83, 59, -118, 342, 72, 242, 247, -59, -37, 147, 121, -59, 9, -152, -107, -5, -148, 120, 79, 153, 66, 156, 18, 39, 165, 50, -165, 22, 88, 48, -24, 244, 359, 41, 244, -49, 77, 69, -94, -102, 42, -133, -86, 119, -59, -4, 156, -99, -40, 35, 90, 142, 146, 100, -96, -227, -99, -183, 16, 242, 22, 304, 95, 3, 86, 2, 5, -155, -35, 93, 146, -31, -27, 72, 153, -83, -19, 103, 37, -140, 40, -111, 5, -130, -4, -154, -219, -45, 184, -68, 22, -225, -13, -119, -164, -50, 123, 16, 80, 139, 141, -58, 160, -168, -46, 139, -82, -80, -71, 37, -24, -57, 5, -75, -244, 202, -33, -72, -96, -90, -248, -238, -183, -76, 36, 112, 91, -88, -89, 166, -172, 132, -107, 157, -55, -24, 74, 28, -62, -123, -57, -300, -313, 34, -76, 106, -51, -139, -221, -92, -243, -174, -158, 160, -127, 71, -154, -139, 5, -14, 161, 154, 99, 32, -17, -51, 155, 5, -1, -127, -191, 91, -131, -91, -206, 64, -224, 63, -184, 137, 83, -121, 22, -69, -114, 127, -37, -35, -118, -44, 135, -42, 157, 158, -124, -148, 97, -68, -208, -144, -32, 40, -191, -197, 93, 30, -24, 91, -25, 88, -48, -90, 78, -25, 170, -52, 148, 153, -92, 108, -26, 149, -18, 57, -40, -126, -136, -91, 24, -29, -1, -133, -64, -218, 54, 174, -32, -173, -114, 54, 35, 103, -86, 96, 67, -61, 16, -122, -14, 133, -26, 91, -2, -144, -1, -67, -103, -202, -93, -211, -200, -82, -128, 148, -41, 93, 10, 76, -89, 156, 11, 117, -47, -142, 59, -174, -11, -108, 43, 273, 94, 217, 106, 47, 201, 189, 152, -208, -120, -234, -151, -4, 120, 140, -33, -171, 128, -114, 42, -168, -37, 172, -141, -25, -68, 142, 132, 10, -45, 151, 47, 114, -117, -80, 115, -235, -11, -296, -236, 178, -22, 71, -112, 34, 79, -64, 119, 36, -42, 22, 26, -115, -38, -57, -35, 195, 97, 262, 32, 19, 151, 67, 67, -292, -172, -220, 43, -66, 136, 64, -58, 17, 119, 133, -117, -56, -59, -160, 36, 125, -42, 82, 44, 229, 147, 348, 400, 389, 151, 223, 172, -32, 35, -191, 63, 20, 67, 169, -151, 146, -132, -39, 124, 144, 3, 35, 74, 118, -135, 108, -8, 255, 246, 274, 432, 339, 481, 207, 402, 51, 7, -21, -34, 126, 114, -133, 124, -31, -86, 133, -22, 109, -84, -177, -4, -141, 89, -81, -18, 126, 198, 373, 146, 376, 471, 388, 432, -193, -147, 83, 19, 47, 55, -30, -164, 103, 62, -8, 139, -59, -75, 134, 106, 4, -131, -101, 57, 230, 393, 430, 379, 279, 424, 269, 205, -220, -97, 87, -152, -107, 166, -169, 102, -61, -165, 149, -131, 19, -80, -155, -160, -138, -150, 95, -6, -57, -29, 150, 145, 74, 138, -67, -39, 40, 44, -8, -36, 170, 113, -25, 77, -84, -146, -52, -36, -171, 107, -52, 29, -150, -114, 135, 39, 156, 177, -45, -72, 125, 177, 45, 103, 102, -54, 23, 117, 68, -172, -58, -122, -94, 144, -162, -97, -70, 43, 11, -100, -120, -94, -1, -79, 153, -9, -154, 82, -61, 54, -77, 23, 96, 150, -86, -60, -14, 153, 142, -148, -131, 0, -138, -55, -124, 47, 158, 176, -42, 37, 127, -133, 67, -34, -103, -36, -150, 68, -88, -66, -133, 127, -3, 22, 22, -30, -108, 82, -133, -139, 76, -105, -71, -8, -18, 74, 44, 52, 76, -73, -62, -26, -70, 173, 109, -120, -177, -161, -92, -138, 17, 125, 84, -98, -35, 5, 109, 122, 146, 3},
    {61, -141, 8, -98, -33, 42, -94, -167, -180, -178, -180, -146, -103, -109, 162, -81, -143, 4, 114, 57, -83, 12, 72, 67, 48, 128, 120, 19, -35, 45, 101, -189, 167, -122, -20, 122, -107, -22, -137, -47, -123, -59, -52, 165, 161, -141, 74, -167, -171, -146, 150, 152, -123, -131, -101, -2, 16, -109, 81, -79, 140, 43, -29, 93, 107, -86, -59, 146, -124, -168, -23, 97, 95, 145, 5, -149, 23, 89, -151, -126, -179, 27, 131, 45, 161, -166, 136, 100, -70, 158, -80, 126, 126, 87, 11, -142, 2, -65, 96, 82, 142, -176, 99, 142, 90, -142, -156, -183, 32, 49, 165, -44, -66, 33, 113, 142, 103, -35, 41, 121, -13, -110, -126, -188, 71, -137, -101, -79, 10, -43, 55, -166, -140, -9, -71, -80, -165, 132, 63, -143, -161, 162, 56, -40, 61, 87, 94, -8, -43, -195, 135, 15, 120, 381, 375, 401, 353, 395, 132, 341, 99, -102, -145, 162, -79, 127, -182, -179, -18, -101, 63, 19, -165, -131, -43, -117, 83, -45, -162, -14, 81, 100, 133, 359, 370, 333, 163, 139, 13, 71, 173, -141, -167, 60, 106, 118, 54, 151, -5, 136, 160, 106, -72, -114, 0, -33, 116, -156, 140, 316, 87, 164, 178, 266, 104, 350, -26, 138, -19, -92, -135, -183, 3, -148, -48, 23, -93, -122, 91, 147, -143, -132, 147, -182, 152, -196, 361, 160, 383, 160, 273, 71, 126, 314, 3, 144, -34, 119, -25, 159, 153, -73, 130, 117, -112, 41, -163, 103, -125, -160, -203, -141, -46, 1, -208, -352, -102, -172, -48, -93, -21, -81, 85, 4, 124, 12, -103, 116, 15, -112, 35, -62, 112, -26, 74, -152, -50, 162, -54, -283, -244, -229, -138, -103, -98, -186, 87, -47, -160, -3, 148, 94, 19, 44, 138, -28, -64, 161, 123, -66, -21, -34, -135, 156, -44, 129, -280, -151, -337, -75, -162, -140, -351, -291, -183, -105, 22, 5, 26, 13, -89, -99, -141, 114, 31, -113, -125, 124, 77, 50, -49, -95, 162, 95, -152, 35, 5, -158, -374, -460, -495, -276, -96, 99, 157, -167, -14, 99, 92, 81, -62, -23, 28, 158, -68, 142, -95, 169, 59, -22, 34, -86, -173, -228, -226, -143, -252, -307, -490, -214, 20, 144, 37, -131, -17, 46, -175, -182, -136, -103, -29, -18, -136, 54, 29, -82, -181, -160, -45, -134, -129, -42, -68, -185, -402, -307, -221, -261, 3, -67, -69, 115, -169, 164, 49, 63, -172, 23, -13, -149, -85, 128, 12, -38, -153, 70, 65, 31, -86, -117, -57, -184, -194, -317, -416, -363, 89, -140, -86, 46, -76, 96, -141, 85, -160, -185, 135, 18, -59, -100, 34, -10, 166, 162, 45, -33, -50, 24, -188, -112, -343, -344, -299, -196, 86, -21, -75, -165, 10, -86, 31, 160, -143, -110, -15, 158, 89, 130, -69, 170, -149, -166, 119, 146, -189, -185, -215, -186, -291, -26, -129, -95, 81, -9, 84, 17, -73, 17, 6, 111, 155, -39, 84, -146, 90, -57, -170, -62, 36, -144, 146, -153, 104, 23, -107, -86, -106, -156, -129, -228, -23, 157, -122, -48, -79, 85, 88, -85, -157, -180, -38, -38, 163, -17, -88, 132, -12, 31, -154, -51, 440, 313, 222, 326, 240, 13, 96, 258, -135, 62, 27, 48, -60, -74, 56, -113, -29, -116, -188, 160, -29, 159, -133, 20, -117, 89, 89, -149, 423, 167, 315, 453, 228, 252, 39, -45, -127, -15, 86, -142, 42, -72, -63, 51, -23, 104, -127, 96, -165, -116, 46, 118, -93, -73, 4, -105, 387, 378, 150, 258, 196, 39, 143, -67, 29, -143, 97, -70, -89, 106, -171, -46, -51, -81, 142, 78, -159, 67, 6, 137, -72, 17, -9, -8, 259, 174, 367, 256, 256, 9, 158, 250, 40, 110, 102, -69, 24, -131, 4, -104, 82, 2, -40, -95, 170, -158, -168, -110, 157, 164, 46, 124, -112, 161, -139, -152, -150, 20, 90, -48, 160, -30, -134, -20, 53, 109, -22, 24, -93, 37, 159, -165, 128, 6, -100, 154, -17, -67, -123, -100, 106, 32, 140, -104, -146, -181, -5, 171, 63, -81, 125, 90, -177, 101, -81, -128, -103, -14, -31, -78, -129, 90, 165, 94, -82, -100, -116, -132, 5, 35, 68, 58, -82, -68, 58, -62, -110, -53, -91, -153, 103, 121, -112, -166, 74, -108, -45, -161, -106, 91, 97, -111, -65, -139, -159, 167, 44, 6, 86, 111, 104, -182, -125, 47, -51, 161, 48, 154, -115, 123, -68, 163, -131, 3, 103, -38, -24, 164, -35, 29, -168, 113, 42, -42, -179, 17, -186, -184, 29, -116, -118, 44, -170, -75, -125, 15, 51, 75, -93, -152, -161, -31, 148, -108},
};

// Layer 1 weights: 16 x 16
static const int16_t WEIGHTS_L1[16][16] = {
    {-66, -1333, -13, 86, 534, 822, 589, -1163, 64, 44, 569, -77, 12, 207, 1134, 421},
    {1135, -1764, 140, 1000, -877, 917, 842, -1432, 759, -1277, 1804, 1323, -1415, -1375, 814, -878},
    {-1235, -191, 189, -1103, 878, 958, 672, 743, -945, -671, -970, 467, 1066, 201, 612, 414},
    {229, 148, -1714, -924, 569, -350, 440, -319, 2, 557, 513, -945, 691, 701, 873, 1624},
    {325, 1551, -655, -1172, -350, -730, 740, 745, -1401, -469, -1092, 95, 1043, 1172, 731, -483},
    {-11, 174, -658, 633, 685, 269, 337, -1085, -420, 332, 504, -912, 390, 1264, 86, 918},
    {-412, 1266, 879, 1292, 94, -304, -1286, -433, 452, 1083, -508, -722, -437, -28, -1138, -441},
    {810, -1203, 728, 1092, -503, 539, 392, 52, 578, -903, 903, 1539, -936, -1339, -1187, -1886},
    {916, -1729, -1299, 396, -942, 353, 905, -1191, 1044, 364, 782, -589, -491, 801, 1084, -620},
    {436, -656, -390, 214, -198, 734, 763, -49, -823, 691, 1148, -985, 151, -381, 1229, 904},
    {-58, 648, -626, 1024, -273, -348, -652, -976, 1082, -4, -146, -314, -1403, 377, 242, -1291},
    {-705, -464, 2205, 677, 1139, 1207, 231, 1222, -360, -513, -1511, -147, 579, -999, -1380, -51},
    {-485, 572, 1612, 920, 540, 257, -363, -426, 1076, -699, -954, 1173, -820, -486, -1864, -1605},
    {-1322, -1040, 1382, 1137, -702, 1229, -1410, 406, -1410, 382, -525, 485, 860, -720, -243, 722},
    {-234, 226, 100, 496, -866, -509, -364, -39, -520, 1175, 679, -30, 446, 1222, -887, -447},
    {161, 850, -1254, 822, -329, -595, -355, -571, 504, 961, -19, 934, 795, 277, 208, -399},
};

// Layer 2 weights: 16 x 10
static const int16_t WEIGHTS_L2[10][16] = {
    {62, -2112, 1230, -342, 1318, 656, -1155, -1596, -959, 252, -1113, 558, -1215, -936, -1583, -1370},
    {898, 3715, -2126, -542, -1857, -379, -1867, 1641, 2921, -1108, 1285, -2711, -536, -2897, -1555, -1000},
    {-695, -1419, -788, 954, 1674, -130, -1522, -1947, 961, -5, -259, -2840, -1913, -1737, 925, 961},
    {-1131, -894, -1053, -44, 553, 2, -519, -1598, 448, 118, -229, -1493, -1490, 875, -24, -343},
    {-1509, -230, -1151, -2450, -250, -974, 964, 1292, -1567, -2417, 1054, 230, 1727, 379, 1, -1087},
    {532, 531, -149, -375, -1898, -1198, -890, -639, 511, 552, -552, 137, -1573, 1685, -728, -1680},
    {-232, 1689, 715, -2364, 165, -1818, -2623, 1562, 299, -473, -1103, 615, 345, 837, -862, -356},
    {-1, -2449, 616, -15, -134, 44, -600, -1340, -427, -1400, -600, 1066, -176, -614, -266, -581},
    {-175, -226, -121, 499, 91, -763, -257, -321, -592, -1205, -1184, -762, -1123, 163, -1389, 95},
    {-1642, -1390, -789, -1781, 74, -1690, 250, 680, -768, -1614, -171, 498, 1866, 554, -509, 516},
};

// Layer 0 biases
static const int16_t BIASES_L0[16] = {51, -82, 22, 72, -36, 31, 107, -66, 141, -94, 48, 14, -138, -53, -7, -208};

// Layer 1 biases
static const int16_t BIASES_L1[16] = {-12, 157, -260, 115, -167, 205, 167, 385, -19, -179, 397, -32, 336, -25, 193, -74};

// Layer 2 biases
static const int16_t BIASES_L2[10] = {-381, -499, -757, -704, -696, -860, -1292, -721, -765, -792};

#endif // NN_WEIGHTS_H
